0.066166 -0.044823 0.098438 -0.056488 0.026575 0.016976 0.034488 -0.098909 0.062519 -0.064418 0.090341 0.075497 0.007751 0.068661 -0.079216 0.055299 0.075452 -0.098431 0.061512 -0.015681 0.054492 0.061186 0.062673 -0.054987 -0.086005 -0.085303 0.024279 0.068232 0.094514 0.043087 0.044358 -0.084070 -0.067835 0.067082 0.048024 0.067564 0.092860 -0.007743 -0.038219 -0.080675 -0.081586 0.020782 0.076594 0.053106 -0.015843 0.020149 -0.077389 0.010287 0.011568 -0.033255 -0.070784 -0.084915 -0.084989 -0.001302 -0.090265 -0.063956 0.062434 0.093556 0.003623 0.088691 -0.059858 -0.083933 0.095169 0.001937 -0.018388 0.066562 -0.005736 0.079486 0.036524 0.064743 -0.000116 0.076098 -0.038112 -0.049138 0.000747 0.001029 -0.024434 0.070946 -0.087975 -0.093702 0.077881 -0.016259 0.046429 -0.027933 -0.034940 0.081254 0.012871 -0.003067 0.016431 0.058829 0.081395 -0.064437 -0.064284 0.086966 0.043167 -0.052147 -0.035800 0.050080 -0.038611 -0.025852
-0.040150 0.046444 0.049206 -0.056850 -0.046490 -0.041327 -0.059204 0.059334 0.068663 0.093960 -0.094676 -0.061812 0.013840 0.059234 0.082628 0.046547 0.024551 0.048243 -0.081339 0.083594 0.046161 0.073966 0.004532 -0.042402 -0.077358 0.029094 0.029780 -0.082350 0.076326 0.033381 -0.064256 -0.082466 -0.047362 -0.082004 0.020708 0.036698 -0.047537 0.030408 -0.087149 0.075315 0.017355 0.085419 0.065834 0.048269 0.073349 -0.093866 -0.049006 0.008275 0.060719 -0.078811 -0.075356 0.003325 0.037029 0.052827 -0.061079 -0.072200 0.096398 -0.018422 0.016262 0.070575 0.095993 0.083599 -0.026273 -0.052503 -0.062630 -0.025180 0.071977 0.088401 -0.084844 -0.044514 -0.094039 -0.022112 -0.028897 0.082534 -0.033523 -0.028643 -0.006407 0.076448 0.007124 0.091727 0.006310 0.063659 -0.086223 0.044791 0.076406 -0.011429 -0.011544 -0.081049 -0.005336 0.068779 -0.099422 -0.041580 -0.097366 0.087699 -0.022928 -0.049150 -0.093233 -0.076635 -0.051726 0.011958
-0.094196 -0.049760 -0.051210 -0.000896 0.052651 0.027734 0.086509 -0.080784 0.027931 0.043510 0.067276 -0.065595 0.021164 -0.016118 0.034594 -0.084307 0.088238 -0.070631 -0.061460 -0.055220 0.056475 -0.074739 0.046493 -0.036348 0.059247 -0.027097 0.022249 0.049859 0.098346 0.003706 -0.094976 -0.094600 0.048810 -0.054751 0.087923 -0.083427 -0.035706 0.026936 0.084782 0.066628 0.027521 0.022095 0.098528 -0.014759 -0.091685 -0.093450 0.089128 0.044318 0.037755 -0.028247 -0.017721 0.013946 -0.061606 0.027599 -0.002758 0.013385 -0.012158 0.096273 -0.077665 0.067150 0.034031 0.088401 0.090780 -0.025463 0.055409 0.040951 -0.054903 -0.087551 -0.076852 -0.090167 0.084796 -0.009098 0.037028 -0.017528 -0.024816 0.026049 -0.074370 0.093942 -0.043456 -0.089149 -0.025568 -0.001518 0.004513 0.017295 0.015778 0.054851 -0.065518 -0.040027 0.056853 0.016071 -0.088102 0.062748 0.085037 -0.056081 0.060922 0.032691 -0.023085 -0.000827 0.098858 -0.066451
0.067619 -0.009603 0.063789 -0.013758 -0.005650 -0.067549 -0.029153 -0.040367 -0.071416 -0.022752 0.002305 0.020824 -0.065696 -0.038103 0.093004 0.011688 0.068014 -0.048179 -0.029059 0.027310 0.016385 0.081011 0.052799 0.059785 -0.009949 0.059674 -0.061639 0.032456 -0.041759 0.096769 0.087632 0.029182 0.096194 0.000211 0.000855 -0.092406 0.026713 -0.047362 0.099417 0.092395 0.075347 -0.048085 0.077355 0.018437 0.099910 -0.039649 0.086158 -0.009285 0.008915 0.088421 0.022531 -0.029377 0.065268 0.058643 -0.014951 0.054775 0.074672 -0.029983 0.096691 0.023619 0.091470 -0.088964 -0.071418 0.061265 -0.050295 0.032388 0.001753 -0.011717 0.003318 0.070495 -0.053222 0.075445 -0.027879 0.021570 0.047119 0.017341 0.052016 -0.077552 0.024554 0.073958 -0.055180 0.041696 -0.096156 0.030153 0.064229 -0.001473 -0.060456 -0.076495 0.098308 0.070670 0.007799 0.039920 -0.058640 0.036163 -0.036317 -0.028278 0.082855 0.038205 0.057272 -0.011678
-0.069610 -0.017046 0.098748 0.071496 -0.044599 0.003785 0.078200 -0.041373 0.013085 -0.039887 -0.077946 0.011608 -0.081161 -0.064073 0.018207 0.097414 0.054959 0.034428 -0.032471 0.016569 0.066501 0.020878 0.062957 0.048626 0.072833 -0.063452 0.042207 0.078974 0.010423 0.073027 0.038488 -0.051243 -0.021315 0.023761 -0.065582 0.071894 0.025825 -0.055469 0.000322 -0.093969 -0.086660 -0.034427 0.046402 0.095409 0.071695 -0.067262 -0.055519 0.004532 -0.094136 -0.033003 0.028609 0.070961 -0.096326 -0.070981 0.075887 0.007539 0.010026 -0.070874 -0.085074 -0.024654 0.001767 -0.099101 -0.001234 0.095903 -0.053175 0.013665 -0.082689 -0.004917 -0.089360 0.009663 0.044843 -0.071312 0.080333 0.059308 0.048232 -0.027789 -0.021200 -0.009555 0.010476 0.004680 0.051504 -0.015571 0.028238 -0.003166 -0.006928 -0.073308 0.094568 0.025025 0.049816 -0.014661 0.064362 -0.015118 -0.038536 0.019019 0.050700 -0.053842 0.003303 0.070559 0.090874 -0.070554
-0.062855 0.035756 -0.085955 0.042933 0.022947 0.050181 0.045678 0.048205 0.030429 -0.034701 -0.030291 -0.033773 0.012181 -0.064184 -0.060949 -0.050726 0.099413 0.053287 0.069967 0.073426 0.083988 -0.042902 -0.098055 -0.089879 0.000973 -0.032205 -0.058439 -0.042852 0.058039 -0.031827 0.007790 0.012290 0.069302 -0.082556 0.032604 -0.090372 -0.028324 0.054767 -0.020631 0.015347 -0.067414 -0.073966 0.086676 -0.090127 -0.093675 0.008374 -0.067115 -0.005951 -0.007799 0.098235 0.050712 -0.025049 0.076025 0.053683 -0.096717 -0.049555 -0.093897 -0.082588 0.093057 0.059551 0.019337 -0.021583 0.000278 -0.093050 0.043490 -0.009656 -0.041593 0.009035 0.097565 0.033282 -0.049332 -0.001406 0.098999 0.081604 -0.079780 0.017068 -0.096699 0.029067 -0.015016 -0.031036 -0.062702 -0.087348 -0.073056 -0.068269 0.058510 0.023738 0.037623 -0.025674 -0.081891 -0.035973 -0.077414 -0.014484 -0.078998 0.050250 -0.060592 0.026961 0.054940 -0.098906 0.096336 -0.072439
0.054727 0.098867 -0.078602 0.025079 -0.057571 0.081263 -0.043713 0.033810 0.097960 0.046556 -0.014693 0.075907 0.032271 -0.074203 0.037008 -0.018521 0.036854 -0.072472 -0.043493 0.053340 -0.039623 0.075664 0.072196 0.081650 0.040635 0.081726 -0.094536 -0.003797 -0.082828 0.053366 0.066484 -0.096079 -0.025616 0.029827 0.047334 -0.056674 0.020896 0.059071 -0.095404 -0.059214 -0.045210 0.087931 -0.080138 0.071127 0.060989 -0.016128 -0.014068 0.034113 0.034275 -0.053994 -0.051484 -0.097674 -0.068900 0.019248 -0.005437 -0.092576 -0.035809 0.021195 0.015623 0.050816 0.037206 0.018316 0.034284 -0.048140 0.044987 -0.020157 0.063570 0.028039 -0.086788 -0.081577 -0.053422 -0.085849 0.014226 -0.061886 -0.012920 -0.007477 -0.084101 -0.098076 -0.046419 0.041579 -0.065487 -0.022537 -0.083555 -0.055832 -0.082993 -0.035639 -0.000775 -0.005840 0.088992 0.019432 -0.065937 -0.083365 -0.076638 -0.093442 0.080153 -0.093667 -0.057771 0.089056 -0.006016 -0.095788
-0.015809 0.021346 0.014924 0.059141 -0.032729 -0.012933 -0.090199 0.081894 0.026071 0.029009 -0.045430 0.040556 0.095372 -0.028618 -0.035583 -0.007104 0.081211 0.041075 0.064196 0.022772 -0.065737 0.063489 0.091818 0.023443 -0.056587 0.063612 -0.045864 -0.002435 0.037136 -0.076888 -0.040596 -0.088202 -0.077767 0.051877 -0.041756 0.068619 0.020235 -0.008517 -0.014524 -0.017704 0.009599 0.025062 0.028176 -0.012254 0.051245 0.073051 0.033269 -0.016206 -0.069577 0.053809 -0.008162 -0.064775 0.002979 -0.065659 -0.048774 -0.027816 -0.007584 -0.000698 -0.099024 -0.084425 -0.083066 0.044721 -0.044940 -0.058789 -0.043402 -0.000584 0.058015 -0.066339 0.038937 0.004896 0.064510 0.021550 0.045754 0.016607 -0.036353 0.095250 -0.061709 -0.089404 0.051920 -0.016460 -0.080385 -0.025476 0.079677 -0.001519 0.088734 -0.039432 -0.001727 -0.086312 0.025354 0.046627 -0.012712 -0.070597 0.091903 0.011960 0.004675 -0.093742 0.020336 -0.069763 0.021959 -0.099512
-0.071912 -0.031120 0.032319 -0.075150 0.003612 -0.051249 -0.079903 -0.005629 -0.019600 0.026104 -0.018503 0.076663 -0.029384 -0.058398 0.033836 0.011891 -0.040270 0.032211 0.043408 0.054468 -0.081568 -0.051211 -0.097547 0.033609 0.011315 -0.038481 0.028281 -0.010719 0.092804 -0.018380 0.041195 0.074619 -0.015852 0.005229 0.029221 -0.030744 -0.085849 0.055061 0.003343 0.098884 0.033632 -0.092168 0.074378 0.084770 -0.089097 -0.004666 -0.069039 -0.072474 -0.033792 0.016392 -0.039490 0.004748 -0.091999 0.092948 0.043357 0.003259 -0.087220 -0.034081 -0.019719 -0.027258 -0.026167 -0.032072 0.021818 0.066964 -0.093288 -0.058630 0.096191 0.009061 0.095380 -0.043825 -0.010325 -0.045633 0.017192 0.054757 0.029286 0.072889 0.046849 -0.088827 0.015302 0.035203 -0.062400 0.045456 -0.061925 -0.068545 -0.089106 -0.083164 -0.020364 0.025138 0.059065 -0.079105 0.089562 0.020581 -0.060767 0.080707 -0.042476 -0.081967 0.065563 -0.013945 -0.077057 -0.056690
0.047563 -0.042308 0.048391 0.000050 0.082992 0.033239 -0.074067 0.029001 -0.094406 0.055833 -0.098185 0.087380 0.065170 -0.016289 -0.010885 -0.048348 0.054286 -0.083978 0.076241 -0.094125 0.088107 0.024305 0.069436 0.091536 -0.038121 0.033150 -0.075287 0.089562 0.054004 -0.024032 -0.007311 0.007477 -0.051357 -0.058114 -0.097847 0.048826 -0.017388 0.089956 -0.063094 0.026806 -0.002185 0.042274 -0.013272 0.033998 0.078523 -0.053526 0.014331 -0.001055 0.069626 0.013535 0.056061 -0.054172 0.024522 -0.007523 0.088327 0.059815 -0.051566 0.006365 -0.026406 -0.090412 -0.016144 0.012536 -0.054297 0.091527 -0.062755 0.063420 -0.019299 -0.056625 0.091263 0.045754 0.002071 0.002996 -0.064378 0.050782 0.005920 0.076755 0.072821 -0.090604 -0.060038 0.054859 0.090264 -0.035506 0.025743 -0.082833 -0.022999 -0.063194 -0.039859 -0.090215 0.062668 0.051527 -0.047768 -0.008391 -0.046979 0.028844 -0.000764 0.018785 -0.082584 0.050807 -0.015258 0.012609
