-0.046063 0.055323 -0.065899 -0.070260 0.056919 -0.094342 -0.042290 0.074468 -0.062818 0.034830
0.000745 0.052061 0.022675 -0.026135 -0.003588 -0.047625 0.022753 0.013790 0.016424 -0.098769
-0.005786 -0.088070 -0.059825 -0.021271 0.053526 0.036820 0.026624 -0.052148 -0.074247 0.063964
0.078194 -0.075446 0.001612 -0.034656 0.045938 0.009177 -0.062111 -0.010636 0.047295 0.066751
0.066389 -0.022981 0.032006 -0.013292 0.061790 0.036390 0.006435 -0.031459 0.085486 0.000643
-0.030101 0.077071 -0.029340 -0.025985 0.085791 -0.036456 0.013310 -0.068831 0.096888 -0.082041
-0.001273 0.017774 -0.058033 0.020845 -0.008800 -0.060594 -0.029295 0.006641 -0.053941 -0.056022
-0.015696 -0.071633 -0.043416 -0.068518 -0.031574 -0.034182 -0.018814 -0.055839 0.006651 0.073722
-0.088516 -0.097766 0.029386 0.094829 -0.088103 -0.042956 0.087886 0.091245 0.028979 0.075172
-0.012096 0.054529 0.070835 -0.068779 -0.022600 -0.073972 0.001872 -0.039151 0.098062 -0.056844
-0.099411 -0.081355 -0.025372 0.044800 -0.061909 -0.007486 -0.087291 -0.061036 -0.098417 0.093400
0.000294 -0.007929 0.074916 0.085729 0.034405 0.030809 0.017615 0.044330 -0.026813 -0.089909
0.011502 0.009656 -0.048324 -0.078980 0.008169 0.026662 0.013234 0.066599 -0.084156 -0.068964
-0.074202 -0.098065 -0.023152 -0.049347 -0.008218 -0.086407 0.072513 -0.001479 -0.072117 -0.081845
-0.037032 0.032273 -0.005364 0.043309 0.080898 -0.036436 -0.092517 -0.067883 0.089554 -0.022055
-0.061694 -0.051765 0.060064 0.033994 -0.047930 -0.036056 0.030522 0.086555 -0.029024 0.094668
0.045835 0.060064 -0.067494 0.028292 0.069669 0.087239 -0.023292 0.042191 0.093971 -0.055808
0.015340 -0.088648 0.013141 0.028499 0.026641 0.049831 0.045815 0.089264 0.079942 0.002800
0.059102 0.076934 0.026182 0.020762 0.074306 0.070662 0.013851 0.077604 0.080827 -0.020206
0.073142 -0.072460 0.074164 -0.035406 -0.003669 -0.038968 0.003184 0.077284 -0.073093 0.037101
0.009013 -0.010524 -0.067559 0.033828 -0.027517 -0.049836 0.008965 -0.083847 -0.073100 0.008278
0.027512 0.099575 -0.028325 -0.054541 0.076369 0.035678 0.081367 0.012287 0.026453 -0.094461
-0.056819 0.095370 0.010309 0.018212 -0.081104 -0.057883 -0.023264 -0.092725 -0.061876 -0.078710
0.079130 -0.009376 0.072723 -0.048758 0.067921 -0.007835 -0.045945 0.019304 -0.018951 0.045376
0.032573 0.099716 0.056537 0.037011 0.002804 0.010694 -0.081174 0.071901 0.001872 -0.075892
0.058403 -0.040042 -0.008599 -0.030841 -0.054557 -0.097385 -0.014367 -0.038812 0.093305 -0.013180
0.083156 0.063349 0.083693 0.097769 -0.075664 -0.054759 0.006109 0.084399 -0.014298 -0.038918
0.017966 -0.012230 -0.009221 -0.061526 0.013153 -0.038904 -0.061143 -0.076827 0.036806 0.040060
-0.051570 -0.094066 0.018345 0.026065 0.016919 -0.082688 0.095058 -0.074647 0.094057 -0.017085
0.022936 0.077308 0.068025 -0.064577 0.061744 -0.008847 -0.002646 -0.001277 0.085493 0.048377
0.096584 0.088557 0.054717 -0.036634 -0.062165 -0.057042 -0.057133 0.011913 -0.084408 0.069429
-0.073096 -0.064904 -0.078002 0.077347 -0.017710 -0.063041 -0.071596 0.087591 -0.074870 0.069520
-0.051189 0.079135 -0.078506 -0.022289 -0.026048 0.061453 -0.075480 0.022716 -0.003431 -0.074811
-0.078708 -0.051160 0.097307 -0.044890 0.038384 -0.091776 -0.063701 -0.004795 -0.096165 -0.079324
-0.062561 0.033517 -0.008765 -0.055423 0.029021 -0.099956 -0.032620 -0.050650 0.057106 0.001684
-0.019420 0.099323 0.051806 0.069059 0.033432 0.099276 -0.030232 0.044312 -0.020048 0.066784
-0.057117 -0.088719 -0.004573 -0.070399 0.055913 -0.036809 0.097948 0.002431 0.087682 0.044715
-0.051159 -0.061540 0.066268 0.047798 0.073549 0.046838 0.044737 -0.064108 -0.069806 -0.099597
-0.039654 -0.091901 0.004090 0.013355 -0.054504 0.058578 -0.038611 0.031552 0.038690 -0.094486
-0.040069 0.046576 -0.079189 0.025493 -0.092898 -0.021951 0.091428 -0.049785 -0.064454 0.050816
0.082244 0.096725 -0.002835 -0.038176 0.000100 -0.004006 -0.017216 0.044417 0.063369 0.046986
-0.015260 0.047562 -0.049258 0.023497 -0.087740 -0.091807 0.042487 -0.073700 0.018698 -0.002493
-0.018350 -0.002028 -0.096776 -0.028321 0.053271 0.099315 -0.056316 -0.077604 0.097303 0.039918
-0.011206 0.056701 0.021968 -0.015880 0.093952 -0.020867 0.014505 0.032396 0.082084 -0.045783
-0.098475 -0.072771 -0.011644 0.074740 -0.041111 0.097019 -0.096281 0.081630 -0.081310 0.081376
0.083508 0.074797 -0.053284 0.044717 0.042086 -0.027608 0.062110 0.018638 0.016690 -0.060404
-0.041200 0.004262 -0.061196 -0.021861 0.088772 -0.033602 -0.058527 -0.061879 -0.069974 -0.000093
0.000540 -0.067432 0.082503 -0.062505 0.053976 0.090431 0.081051 -0.055177 0.082710 -0.057565
-0.073178 -0.001398 0.091988 -0.022349 -0.029802 -0.081909 0.017747 -0.084532 0.042910 0.014946
0.001924 -0.052083 0.047215 -0.046934 -0.017850 -0.012089 -0.029367 -0.057127 -0.061354 0.022049
0.056685 0.040005 -0.049829 -0.025631 0.020095 0.033243 -0.054067 -0.030374 -0.065911 -0.081693
0.085141 -0.067811 0.051863 0.010742 -0.046715 -0.066445 -0.076511 -0.082408 -0.091186 0.097075
-0.019560 -0.035549 0.015501 -0.099455 -0.089102 -0.050896 0.013367 -0.030317 0.016429 -0.075745
0.080097 0.090244 -0.037321 -0.094829 -0.029549 -0.031487 0.016166 0.069827 0.097491 0.008408
-0.036985 -0.029357 -0.080367 -0.058199 0.010363 -0.047061 -0.097107 -0.049885 -0.099829 -0.003792
-0.059748 -0.074344 -0.039875 0.096850 -0.046971 -0.039529 -0.013874 0.093416 -0.016408 -0.008298
0.086465 0.086946 0.036310 0.067060 -0.026337 -0.032540 -0.014410 -0.060047 -0.059717 -0.047531
0.053051 0.019223 -0.057092 0.007520 0.077679 -0.018464 -0.088255 0.007617 -0.086819 0.060688
0.028964 0.082236 0.065867 0.088868 0.018471 -0.006618 0.035341 -0.081874 -0.091823 0.050730
0.079259 0.047618 0.049260 0.039108 -0.019161 -0.002357 0.013902 -0.039517 0.053226 -0.042382
0.036846 -0.036417 0.083570 0.095112 -0.057306 0.014724 -0.016230 0.007142 -0.052122 -0.097565
0.056243 0.040040 0.000820 -0.071834 -0.025235 0.093586 0.006150 0.076757 -0.087826 -0.011180
-0.024603 -0.077999 0.063405 0.076793 0.030470 -0.040974 -0.063040 -0.071026 -0.075450 -0.054510
0.087792 0.084996 -0.032537 -0.062273 -0.085599 0.041457 -0.033319 0.057846 -0.093246 0.020544
0.026305 0.018402 0.020586 -0.047498 0.005090 0.052819 0.051119 -0.059487 -0.080206 0.002236
0.018963 0.097952 -0.005695 -0.036152 -0.012415 -0.095244 -0.023283 -0.090423 -0.027294 0.028391
-0.047715 0.048991 0.080093 0.037848 0.066199 0.045827 0.044045 0.011929 0.014784 0.050443
-0.066580 0.002660 -0.079275 0.099311 -0.093344 0.023037 -0.007471 0.056169 -0.001668 0.075566
-0.091851 -0.067491 -0.007148 -0.066547 -0.037041 0.088295 0.024083 0.089110 0.012392 -0.019137
0.025414 0.045445 0.021573 0.090946 0.017439 0.084242 -0.081196 0.083304 -0.087788 0.061835
-0.073182 0.002144 -0.080288 -0.088242 0.005189 0.021803 -0.023979 -0.049654 0.091723 0.096469
0.007721 -0.070040 -0.025569 -0.044485 -0.077754 0.083176 -0.086952 0.004233 0.062307 0.028763
0.037812 -0.022849 0.000367 -0.034865 0.013677 0.067270 0.019775 -0.096264 0.078943 -0.050650
0.021141 -0.044215 -0.069913 0.098764 -0.082910 -0.082566 0.026418 0.040581 -0.061731 0.072652
0.094579 -0.071822 0.094704 -0.004520 0.007381 -0.025838 0.061726 0.055241 0.091898 -0.002928
0.065900 -0.039168 -0.056007 -0.028032 -0.085526 0.039610 0.052915 0.036660 -0.031314 -0.026067
0.085403 -0.048685 -0.084703 -0.097585 0.057678 0.096773 -0.062925 0.065429 -0.008723 -0.021428
-0.079367 0.053555 -0.022210 0.055479 0.097097 0.091791 0.059841 -0.091943 0.034911 -0.017928
-0.026545 -0.062458 0.039397 0.072603 -0.021304 -0.014344 -0.013959 -0.059420 -0.076395 0.069045
-0.074608 0.012096 -0.064685 -0.060669 -0.022557 0.029210 0.085179 -0.068421 -0.023847 0.068971
0.021345 0.019048 0.025695 0.027888 0.025692 -0.081173 -0.052636 -0.013764 0.080441 0.063106
-0.059897 -0.035486 0.032719 0.020781 0.009159 0.013774 0.061990 0.015275 0.000817 0.063342
0.084287 -0.059633 -0.045218 0.093209 -0.097161 0.053890 -0.007588 -0.006382 -0.005108 -0.040850
-0.079887 0.024143 0.095844 -0.007445 -0.037611 -0.044363 0.035030 -0.008188 -0.053188 -0.030240
-0.070202 0.001464 -0.004135 0.028914 0.048228 -0.013578 0.012403 0.031514 0.047841 -0.094177
0.056989 -0.078684 0.043514 0.006005 -0.043306 0.000547 0.006538 0.012861 -0.061712 0.041095
-0.039673 0.097168 0.049092 0.065856 -0.032082 -0.070118 -0.054443 0.046762 -0.060019 0.039172
0.066164 -0.059718 -0.044665 -0.028135 0.099065 -0.059611 0.058609 -0.014081 -0.072688 -0.029465
-0.024651 0.026984 0.098411 -0.063006 0.022071 -0.025388 -0.034179 0.060311 0.053475 -0.025228
-0.087923 0.095980 0.075869 0.050661 -0.078127 -0.080436 -0.082868 -0.068065 0.040821 0.009080
0.019988 -0.043364 0.047296 -0.048219 -0.042593 0.049409 -0.053262 0.004971 -0.049010 -0.094515
0.020997 -0.074957 0.094462 -0.055290 0.060474 0.066518 -0.088267 -0.032698 0.077760 -0.058034
-0.051068 0.045369 -0.015411 0.022078 0.016808 -0.095839 -0.044477 -0.046467 0.091924 0.032945
0.051127 -0.057885 -0.003772 0.015917 0.084942 -0.064083 -0.091180 0.033174 -0.085142 -0.095365
0.018622 -0.070741 -0.065164 -0.060222 0.029255 -0.002104 0.014100 0.041056 0.056169 -0.065482
-0.095351 -0.087664 -0.052764 -0.010886 -0.098276 -0.035070 -0.061562 0.094217 -0.039195 0.061441
0.081801 0.041111 -0.025956 0.007997 0.032488 -0.072057 -0.014127 0.063801 -0.035376 -0.085741
-0.043116 0.005765 -0.038848 0.001003 -0.070796 -0.019777 -0.020257 -0.053064 -0.064336 0.085080
-0.016093 -0.090883 0.071917 -0.021931 -0.058534 0.061660 -0.074290 0.008061 -0.031601 -0.009933
0.053668 -0.061557 -0.016862 0.031560 0.020078 -0.004641 0.034432 0.016263 -0.065819 -0.034913
